/**
nca_weights.h
 * NCA Weights - Default (demo) weights
 * Architecture: 12 -> 32 -> 4
 * Total parameters: 548
 * 
 * NOTE: These are initial/demo weights.
 * For best results, train with train_nca.py and replace this file.
 */

#pragma once

#include <pgmspace.h>

#define NCA_STATE_CH    4
#define NCA_PERCEPT_DIM 12
#define NCA_HIDDEN_DIM  32
#define NCA_UPDATE_DIM  4

// shape: [32, 12], total: 384
const float nca_fc1_weight[384] PROGMEM = {
  -0.09265827f,  0.33287457f,  0.17133889f,  0.07286412f, -0.25404707f, -0.25406489f, -0.32637689f,  0.27043900f,
   0.07467838f,  0.15367179f, -0.35407183f,  0.34705141f,  0.24552517f, -0.21245165f, -0.23498784f, -0.23382127f,
  -0.14457668f,  0.01828384f, -0.05026193f, -0.15418750f,  0.08260883f, -0.26625142f, -0.15351135f, -0.09869832f,
  -0.03244447f,  0.21061641f, -0.22180562f,  0.01051283f,  0.06825268f, -0.33496857f,  0.07942714f, -0.24333405f,
  -0.32123068f,  0.33152395f,  0.34389204f,  0.22776654f, -0.14430229f, -0.29713884f,  0.13606511f, -0.04420031f,
  -0.27914327f, -0.00356209f, -0.34387687f,  0.30230317f, -0.17815278f,  0.12003066f, -0.13906059f,  0.01482122f,
   0.03449783f, -0.23275042f,  0.34681123f,  0.20319906f,  0.32459149f,  0.29159933f,  0.07230393f,  0.31157476f,
  -0.30391842f, -0.22453153f, -0.33587191f, -0.12900209f, -0.08221727f, -0.16886993f,  0.24278875f, -0.10579468f,
  -0.16179058f,  0.03153315f, -0.26519504f,  0.22318727f, -0.31421518f,  0.35958984f,  0.20106609f, -0.22251321f,
  -0.36519611f,  0.23298371f,  0.15277427f,  0.16913301f,  0.20034643f, -0.31458887f, -0.10452998f, -0.28369951f,
   0.26816964f,  0.09106170f, -0.12489009f, -0.32233351f, -0.13959880f, -0.12911068f,  0.16957541f,  0.10159293f,
   0.28597558f, -0.02052064f, -0.28094828f,  0.15749171f,  0.19260253f,  0.04525621f,  0.20012252f, -0.00458226f,
   0.01678931f, -0.05351450f, -0.35050121f, -0.28959137f, -0.34606248f,  0.10074577f, -0.13710719f,  0.00632987f,
   0.30100778f, -0.18515997f, -0.06618660f,  0.18873702f, -0.20029584f, -0.31242105f, -0.15527885f, -0.25020465f,
   0.31735274f,  0.22756198f,  0.09852520f,  0.27434182f,  0.22427669f, -0.23148336f,  0.28992403f,  0.02905617f,
   0.22705960f,  0.29253280f, -0.13441335f, -0.28799573f, -0.20093320f, -0.05383446f,  0.23486947f,  0.26641721f,
  -0.36413997f,  0.00793741f, -0.06099602f, -0.20523699f, -0.28074804f, -0.11992914f,  0.32711050f, -0.13057329f,
   0.01387779f,  0.14993943f, -0.10071621f,  0.34843415f,  0.34153995f, -0.18332092f, -0.00203211f, -0.14706111f,
  -0.15890582f, -0.34203166f,  0.08091862f,  0.00197859f, -0.33125490f, -0.16348042f,  0.30152434f, -0.19234629f,
  -0.26226252f, -0.00778965f,  0.35867664f, -0.19050480f,  0.12713052f,  0.19321889f, -0.19376752f,  0.16854894f,
  -0.09764863f,  0.09771433f,  0.09861822f,  0.02642136f, -0.30259106f,  0.24763730f, -0.13236269f, -0.23152143f,
  -0.33916003f,  0.06712889f,  0.13113998f, -0.35702354f,  0.00893132f, -0.20199625f,  0.10721722f, -0.24049634f,
   0.14101687f, -0.08365149f,  0.32254648f, -0.26770851f, -0.11738028f, -0.28546873f,  0.31365702f,  0.27868357f,
  -0.17877196f,  0.11815605f,  0.23428412f,  0.04076850f,  0.02189840f, -0.19065472f, -0.30051354f,  0.29336327f,
   0.29572833f,  0.09830194f, -0.11888438f, -0.11136611f,  0.16687933f,  0.29328537f,  0.28588226f,  0.20670179f,
   0.10489732f, -0.30713299f, -0.24990375f,  0.29435179f,  0.07860307f, -0.36248201f, -0.29433277f,  0.12075406f,
  -0.36553624f, -0.25050986f,  0.03599229f,  0.14172399f,  0.11223083f, -0.20364061f,  0.15670474f, -0.19405441f,
  -0.12895086f,  0.18204597f,  0.11051122f,  0.25791860f,  0.11640484f,  0.05044925f, -0.30009106f, -0.09769835f,
  -0.17340954f, -0.18907619f,  0.34934145f, -0.07895257f,  0.28954557f,  0.09685230f,  0.21773258f,  0.00194762f,
   0.05679728f, -0.00552605f, -0.22507797f,  0.16429177f, -0.16191034f, -0.35131595f,  0.10743841f, -0.23846957f,
   0.32530022f,  0.33524847f,  0.30639765f, -0.09589416f, -0.35785902f,  0.31633422f, -0.05303952f,  0.34464744f,
   0.34240603f,  0.26071477f, -0.15180956f, -0.08486095f,  0.25933161f, -0.13521206f, -0.24409579f,  0.04195051f,
   0.32212165f,  0.14477760f,  0.05174360f, -0.29750487f,  0.08493847f,  0.36192876f, -0.26581559f,  0.01353735f,
   0.27870849f,  0.17781942f,  0.14550577f,  0.14954440f, -0.10377266f, -0.15244253f,  0.22847836f,  0.22903392f,
   0.27110088f,  0.30519837f,  0.00837692f,  0.00111986f,  0.22030559f,  0.11075570f,  0.14916243f,  0.21845737f,
   0.28803805f, -0.11964851f, -0.09188808f, -0.29986420f,  0.05781372f, -0.34272933f, -0.02540755f,  0.03149515f,
  -0.15764974f,  0.06708481f, -0.34674853f, -0.34169102f,  0.23825631f, -0.10325605f, -0.27543408f,  0.01642774f,
   0.19940345f, -0.20988008f,  0.09076063f, -0.30624118f, -0.33110499f,  0.02315693f,  0.03001103f,  0.10149871f,
   0.16697952f,  0.35144004f,  0.01203861f, -0.13075531f,  0.21800946f, -0.16925161f, -0.04507259f, -0.31133059f,
  -0.35055169f,  0.34168851f,  0.24813776f,  0.14473654f, -0.06724270f, -0.24128814f, -0.25373805f, -0.18445784f,
   0.03635630f,  0.15848960f,  0.11831360f, -0.16252959f,  0.33594027f,  0.17569852f,  0.04014313f,  0.08251124f,
  -0.05937929f, -0.18631302f, -0.10637122f,  0.19043197f, -0.35864419f, -0.28354916f, -0.33529928f, -0.33919427f,
   0.26252505f,  0.15041129f, -0.01907389f, -0.29701915f, -0.00619209f, -0.01959240f, -0.24135642f, -0.04885380f,
  -0.07495922f,  0.08556097f,  0.09977327f, -0.33581525f, -0.09260472f,  0.09295371f,  0.00231628f,  0.26328519f,
   0.11720301f, -0.24893942f, -0.31715599f,  0.10518361f, -0.34969458f,  0.06334946f,  0.32513160f,  0.05574137f,
  -0.08259198f,  0.10582536f, -0.03083228f,  0.03369023f,  0.32604337f, -0.08411878f,  0.34061182f,  0.29937130f,
  -0.22467314f, -0.31804776f, -0.29484499f, -0.35581675f, -0.29952371f,  0.13515946f, -0.31669816f, -0.13369536f,
   0.25470731f, -0.35208702f,  0.23225036f, -0.16111092f, -0.28200397f,  0.14530003f,  0.09523060f,  0.27878156f
};

// shape: [32], total: 32
const float nca_fc1_bias[32] PROGMEM = {
   0.00000000f,  0.00000000f,  0.00000000f,  0.00000000f,  0.00000000f,  0.00000000f,  0.00000000f,  0.00000000f,
   0.00000000f,  0.00000000f,  0.00000000f,  0.00000000f,  0.00000000f,  0.00000000f,  0.00000000f,  0.00000000f,
   0.00000000f,  0.00000000f,  0.00000000f,  0.00000000f,  0.00000000f,  0.00000000f,  0.00000000f,  0.00000000f,
   0.00000000f,  0.00000000f,  0.00000000f,  0.00000000f,  0.00000000f,  0.00000000f,  0.00000000f,  0.00000000f
};

// shape: [4, 32], total: 128
const float nca_fc2_weight[128] PROGMEM = {
   0.04064311f,  0.03148144f, -0.04144975f, -0.02800905f,  0.03736468f,  0.03051852f, -0.00104508f,  0.00586637f,
   0.06388324f, -0.02957857f,  0.02735487f, -0.01010963f, -0.01088406f,  0.05493884f,  0.04127082f,  0.04067548f,
   0.06527394f,  0.00105019f,  0.03409765f, -0.01551334f,  0.01620832f, -0.00650715f,  0.00484980f,  0.02975785f,
  -0.04091103f,  0.10461936f, -0.05030087f, -0.06070943f,  0.05790554f,  0.03958314f,  0.03120599f,  0.03141728f,
  -0.00061234f, -0.04486272f,  0.00379023f, -0.03385809f,  0.04875598f, -0.00735287f, -0.04127486f, -0.01606929f,
   0.02064657f, -0.02818623f, -0.04111102f,  0.01218436f,  0.01224833f, -0.02534716f, -0.02355192f,  0.01160250f,
  -0.07240422f, -0.07037319f, -0.03592221f, -0.01067236f,  0.01554538f,  0.07376781f,  0.04288298f, -0.00799693f,
  -0.00095081f, -0.05012647f, -0.00092566f, -0.01443293f,  0.01613593f, -0.04136155f,  0.02596733f,  0.07663695f,
  -0.00543801f,  0.02008559f,  0.03450720f, -0.02006102f,  0.01120462f,  0.00062962f,  0.00488380f, -0.03865049f,
   0.00122551f,  0.02489991f,  0.07255718f,  0.04796354f,  0.10765912f, -0.03836738f,  0.04361603f,  0.00916710f,
   0.10949015f, -0.04041491f, -0.04198609f, -0.02996963f, -0.10619479f, -0.02628775f, -0.03795664f,  0.00751969f,
   0.01708780f,  0.09380855f,  0.04752119f, -0.02884518f, -0.04492074f,  0.02459596f, -0.06601166f,  0.09157294f,
   0.05897201f, -0.02345878f, -0.08565672f,  0.06769362f, -0.00572699f,  0.06189082f, -0.07972138f, -0.02996875f,
   0.00026218f,  0.00234903f, -0.02250327f,  0.03114250f, -0.05338102f, -0.00711897f,  0.00601478f,  0.02572194f,
   0.03558075f, -0.05623211f, -0.07670571f,  0.06388384f,  0.01661570f, -0.03742433f,  0.07755760f,  0.00578373f,
   0.05896486f,  0.00337592f,  0.10303739f,  0.08776704f, -0.01244821f,  0.04857855f,  0.03226880f,  0.06843158f
};

// shape: [4], total: 4
const float nca_fc2_bias[4] PROGMEM = {
   0.00000000f,  0.00000000f,  0.00000000f,  0.00000000f
};

